digraph Tree {
node [shape=box, style="filled, rounded", color="black", fontname=helvetica] ;
edge [fontname=helvetica] ;
0 [label="petal width (cm) <= 0.75\ngini = 0.66\nsamples = 94\nvalue = [46, 46, 58]\nclass = virginica", fillcolor="#f0e8fc"] ;
1 [label="gini = 0.0\nsamples = 31\nvalue = [46, 0, 0]\nclass = setosa", fillcolor="#e58139"] ;
0 -> 1 [labeldistance=2.5, labelangle=45, headlabel="True"] ;
2 [label="petal length (cm) <= 4.85\ngini = 0.49\nsamples = 63\nvalue = [0, 46, 58]\nclass = virginica", fillcolor="#e5d6fa"] ;
0 -> 2 [labeldistance=2.5, labelangle=-45, headlabel="False"] ;
3 [label="sepal length (cm) <= 4.95\ngini = 0.16\nsamples = 27\nvalue = [0, 42, 4]\nclass = versicolor", fillcolor="#4ce78d"] ;
2 -> 3 ;
4 [label="gini = 0.0\nsamples = 1\nvalue = [0, 0, 3]\nclass = virginica", fillcolor="#8139e5"] ;
3 -> 4 ;
5 [label="sepal length (cm) <= 6.15\ngini = 0.05\nsamples = 26\nvalue = [0, 42, 1]\nclass = versicolor", fillcolor="#3ee684"] ;
3 -> 5 ;
6 [label="gini = 0.0\nsamples = 18\nvalue = [0, 30, 0]\nclass = versicolor", fillcolor="#39e581"] ;
5 -> 6 ;
7 [label="petal length (cm) <= 4.75\ngini = 0.14\nsamples = 8\nvalue = [0, 12, 1]\nclass = versicolor", fillcolor="#49e78c"] ;
5 -> 7 ;
8 [label="gini = 0.0\nsamples = 7\nvalue = [0, 12, 0]\nclass = versicolor", fillcolor="#39e581"] ;
7 -> 8 ;
9 [label="gini = 0.0\nsamples = 1\nvalue = [0, 0, 1]\nclass = virginica", fillcolor="#8139e5"] ;
7 -> 9 ;
10 [label="petal width (cm) <= 1.75\ngini = 0.13\nsamples = 36\nvalue = [0, 4, 54]\nclass = virginica", fillcolor="#8a48e7"] ;
2 -> 10 ;
11 [label="petal length (cm) <= 5.05\ngini = 0.49\nsamples = 6\nvalue = [0, 4, 3]\nclass = versicolor", fillcolor="#cef8e0"] ;
10 -> 11 ;
12 [label="gini = 0.0\nsamples = 3\nvalue = [0, 3, 0]\nclass = versicolor", fillcolor="#39e581"] ;
11 -> 12 ;
13 [label="sepal length (cm) <= 6.05\ngini = 0.38\nsamples = 3\nvalue = [0, 1, 3]\nclass = virginica", fillcolor="#ab7bee"] ;
11 -> 13 ;
14 [label="gini = 0.0\nsamples = 1\nvalue = [0, 1, 0]\nclass = versicolor", fillcolor="#39e581"] ;
13 -> 14 ;
15 [label="gini = 0.0\nsamples = 2\nvalue = [0, 0, 3]\nclass = virginica", fillcolor="#8139e5"] ;
13 -> 15 ;
16 [label="gini = 0.0\nsamples = 30\nvalue = [0, 0, 51]\nclass = virginica", fillcolor="#8139e5"] ;
10 -> 16 ;
}